{
  "type": "NeuralNetwork",
  "sizes": [
    11,
    5,
    1
  ],
  "layers": [
    {
      "weights": [],
      "biases": []
    },
    {
      "weights": [
        [
          0.08267910778522491,
          3.8327860832214355,
          -2.110278367996216,
          2.938603401184082,
          -8.5493745803833,
          3.085437059402466,
          -2.447119951248169,
          -1.6247063875198364,
          5.330047607421875,
          0.45541879534721375,
          21.654895782470703
        ],
        [
          0.5390602350234985,
          -3.220573663711548,
          -1.0224322080612183,
          1.5128473043441772,
          -3.1570897102355957,
          -0.26221418380737305,
          -2.486731767654419,
          -0.5551889538764954,
          0.07194982469081879,
          1.2707186937332153,
          5.644323825836182
        ],
        [
          -0.3721027970314026,
          -0.8513911366462708,
          -0.1336778998374939,
          0.038986388593912125,
          -0.2911030948162079,
          -0.7698644995689392,
          -0.8463985919952393,
          -0.3050125241279602,
          -0.7537981271743774,
          0.1713973879814148,
          0.3829743564128876
        ],
        [
          1.6470519304275513,
          5.948228359222412,
          -4.062703609466553,
          -1.4072211980819702,
          5.526909351348877,
          -26.045907974243164,
          -7.353934288024902,
          0.4130345582962036,
          1.4675050973892212,
          4.479221820831299,
          2.2622148990631104
        ],
        [
          1.046079397201538,
          -10.08718204498291,
          -0.8949015140533447,
          3.174889326095581,
          -7.027680397033691,
          -8.970497131347656,
          -5.0507659912109375,
          -0.7593048214912415,
          1.315242052078247,
          6.279633522033691,
          13.861318588256836
        ]
      ],
      "biases": [
        -6.446424961090088,
        -3.7222766876220703,
        -2.6467485427856445,
        -3.3853514194488525,
        -1.3255000114440918
      ]
    },
    {
      "weights": [
        [
          6.515006065368652,
          1.4616769552230835,
          0.4871293306350708,
          -8.656353950500488,
          2.013753652572632
        ]
      ],
      "biases": [
        -0.7783648371696472
      ]
    }
  ],
  "inputLookup": {
    "fixed acidity": 0,
    "volatile acidity": 1,
    "citric acid": 2,
    "residual sugar": 3,
    "chlorides": 4,
    "free sulfur dioxide": 5,
    "total sulfur dioxide": 6,
    "density": 7,
    "pH": 8,
    "sulphates": 9,
    "alcohol": 10
  },
  "inputLookupLength": 11,
  "outputLookup": {
    "quality": 0
  },
  "outputLookupLength": 1,
  "options": {
    "inputSize": 0,
    "outputSize": 0,
    "binaryThresh": 0.5
  },
  "trainOpts": {
    "activation": "sigmoid",
    "iterations": 20000,
    "errorThresh": 0.005,
    "log": false,
    "logPeriod": 10,
    "leakyReluAlpha": 0.01,
    "learningRate": 0.3,
    "momentum": 0.1,
    "callbackPeriod": 10,
    "timeout": "Infinity",
    "beta1": 0.9,
    "beta2": 0.999,
    "epsilon": 1e-8
  }
}